0,1,2,3,4,5,6,7,8,9,10,11,12,13
-2.920210329767116,-0.4124305203768164,0.13049300740112957,-0.9579503090974846,-0.1277591055099873,0.4907800851025739,-0.11346742467138062,0.7972042968756878,-0.6142493090030706,-0.7844612021516456,-0.20590574012744645,0.006967923337567602,-0.42004612769321387,0.9124665157154512
-1.6529235904258928,0.1700778793556746,1.2677123299807667,1.3577698688784905,-1.33803845637901,0.5516202277860772,-0.8981657065665695,-1.3974697825555686,0.6242092444654053,0.5684927206390158,-0.3376142017149222,-0.04965408672064573,-0.1311187896012992,-0.6109454444295433
-2.1243449124626808,0.3728822367866461,-0.7057910910338868,0.4830612702654226,0.7484530530104235,0.28898950459784933,1.2708013390563926,1.0754939864673674,0.04048312602366568,0.047984096241857815,-0.1091683467919544,0.10718262936871178,1.2272079984586397,0.08736218458837969
-3.10960074352045,-0.0713051525093999,-0.7363368848928433,-0.8710913082584713,0.7649546751324313,-1.21379078430349,-0.42480905003776653,-0.5602786968514293,0.03556292332172825,0.3858296816868163,0.6100745222931113,-0.08834560980599897,-0.7779194847973226,-0.49618552201967525
