0,1,2,3,4,5,6,7,8,9,10,11,12,13
-1.2768050706625658,-0.07226792796122741,0.1305551801240045,-0.5652700056065996,-0.12806274771481452,0.15291211077720931,-0.09016958432455874,0.5161733126131511,-0.584448741157839,-0.651051925065237,-0.20501846324045106,-0.032249110731712084,-0.32148308978592843,0.6389887026365496
-0.7006003651583074,0.05497850927749604,0.7748116480492833,0.745491152719797,-0.7916894814413573,0.39260305658401967,-0.493469257725084,-0.8279769366467112,0.42456817886188886,0.44022565276213754,-0.24013957644495798,0.025432831710209026,-0.05344525085384519,-0.3368332106969542
-0.9388996715888676,0.06592754541425759,-0.5020422485408921,0.3570504009499144,0.5162244911668813,0.3064458084366111,0.8698541304741118,0.705799149769056,0.06781158466818812,0.0871834208178794,0.04074928140091447,0.021911328596690975,0.7944229519899304,0.032570787398115135
-1.4162557732695327,-0.006630391747021229,-0.419867785414637,-0.5720893693495526,0.42380489553365114,-0.8453861991402224,-0.26369234789845697,-0.34942794715943715,0.06571660423381202,0.10854081320585526,0.3875380631553545,-0.022140205884252726,-0.43473787173882694,-0.3185430481317298
