0,1,2,3,4,5,6,7,8,9,10,11,12,13
-2.920210329767116,-0.41243052037681627,0.1304930074011295,-0.9579503090974847,-0.12775910550998726,0.4907800851025739,-0.11346742467138055,0.7972042968756875,-0.6142493090030707,-0.7844612021516455,-0.2059057401274464,0.006967923337567606,-0.42004612769321376,0.9124665157154515
-1.6529235904258928,0.17007787935567462,1.2677123299807667,1.3577698688784905,-1.33803845637901,0.5516202277860771,-0.8981657065665695,-1.3974697825555684,0.6242092444654054,0.5684927206390158,-0.3376142017149223,-0.04965408672064574,-0.13111878960129916,-0.6109454444295435
-2.1243449124626808,0.3728822367866461,-0.7057910910338867,0.48306127026542256,0.7484530530104234,0.2889895045978492,1.2708013390563926,1.0754939864673674,0.04048312602366565,0.047984096241857795,-0.10916834679195438,0.1071826293687118,1.22720799845864,0.08736218458837967
-3.10960074352045,-0.07130515250939988,-0.7363368848928432,-0.8710913082584711,0.7649546751324315,-1.21379078430349,-0.42480905003776664,-0.5602786968514293,0.03556292332172828,0.38582968168681636,0.6100745222931114,-0.08834560980599895,-0.7779194847973228,-0.49618552201967514
